{
    "ops": [
        {
            "attrs": {}, 
            "inputs": {
                "X": [
                    "feed"
                ]
            }, 
            "outputs": {
                "Out": [
                    "pixel"
                ]
            }, 
            "type": "feed"
        }, 
        {
            "attrs": {
                "Scale_in": 1.0, 
                "Scale_in_eltwise": 1.0, 
                "Scale_out": 1.0, 
                "Scale_weights": [
                    1.0
                ], 
                "data_format": "AnyLayout", 
                "dilations": [
                    1, 
                    1
                ], 
                "exhaustive_search": false, 
                "force_fp32_output": false, 
                "fuse_relu": false, 
                "fuse_relu_before_depthwise_conv": false, 
                "fuse_residual_connection": false, 
                "groups": 1, 
                "is_test": 1, 
                "paddings": [
                    0, 
                    0
                ], 
                "strides": [
                    1, 
                    1
                ], 
                "use_cudnn": true, 
                "use_mkldnn": false, 
                "workspace_size_MB": 4096
            }, 
            "inputs": {
                "Filter": [
                    "conv2d_0.w_0"
                ], 
                "Input": [
                    "pixel"
                ]
            }, 
            "outputs": {
                "Output": [
                    "conv2d_0.tmp_0"
                ]
            }, 
            "type": "conv2d"
        }, 
        {
            "attrs": {
                "axis": 1, 
                "use_mkldnn": false, 
                "x_data_format": "", 
                "y_data_format": ""
            }, 
            "inputs": {
                "X": [
                    "conv2d_0.tmp_0"
                ], 
                "Y": [
                    "conv2d_0.b_0"
                ]
            }, 
            "outputs": {
                "Out": [
                    "conv2d_0.tmp_1"
                ]
            }, 
            "type": "elementwise_add"
        }, 
        {
            "attrs": {
                "is_test": 1, 
                "use_mkldnn": false
            }, 
            "inputs": {
                "X": [
                    "conv2d_0.tmp_1"
                ]
            }, 
            "outputs": {
                "Out": [
                    "conv2d_0.tmp_1-1"
                ]
            }, 
            "type": "relu"
        }, 
        {
            "attrs": {
                "adaptive": false, 
                "ceil_mode": false, 
                "data_format": "AnyLayout", 
                "exclusive": true, 
                "global_pooling": false, 
                "is_test": 1, 
                "ksize": [
                    2, 
                    2
                ], 
                "paddings": [
                    0, 
                    0
                ], 
                "pooling_type": "max", 
                "strides": [
                    2, 
                    2
                ], 
                "use_cudnn": true, 
                "use_mkldnn": false
            }, 
            "inputs": {
                "X": [
                    "conv2d_0.tmp_1-1"
                ]
            }, 
            "outputs": {
                "Out": [
                    "pool2d_0.tmp_0"
                ]
            }, 
            "type": "pool2d"
        }, 
        {
            "attrs": {
                "Scale_in": 1.0, 
                "Scale_in_eltwise": 1.0, 
                "Scale_out": 1.0, 
                "Scale_weights": [
                    1.0
                ], 
                "data_format": "AnyLayout", 
                "dilations": [
                    1, 
                    1
                ], 
                "exhaustive_search": false, 
                "force_fp32_output": false, 
                "fuse_relu": false, 
                "fuse_relu_before_depthwise_conv": false, 
                "fuse_residual_connection": false, 
                "groups": 1, 
                "is_test": 1, 
                "paddings": [
                    0, 
                    0
                ], 
                "strides": [
                    1, 
                    1
                ], 
                "use_cudnn": true, 
                "use_mkldnn": false, 
                "workspace_size_MB": 4096
            }, 
            "inputs": {
                "Filter": [
                    "conv2d_1.w_0"
                ], 
                "Input": [
                    "pool2d_0.tmp_0"
                ]
            }, 
            "outputs": {
                "Output": [
                    "conv2d_1.tmp_0"
                ]
            }, 
            "type": "conv2d"
        }, 
        {
            "attrs": {
                "axis": 1, 
                "use_mkldnn": false, 
                "x_data_format": "", 
                "y_data_format": ""
            }, 
            "inputs": {
                "X": [
                    "conv2d_1.tmp_0"
                ], 
                "Y": [
                    "conv2d_1.b_0"
                ]
            }, 
            "outputs": {
                "Out": [
                    "conv2d_1.tmp_1"
                ]
            }, 
            "type": "elementwise_add"
        }, 
        {
            "attrs": {
                "is_test": 1, 
                "use_mkldnn": false
            }, 
            "inputs": {
                "X": [
                    "conv2d_1.tmp_1"
                ]
            }, 
            "outputs": {
                "Out": [
                    "conv2d_1.tmp_1-1"
                ]
            }, 
            "type": "relu"
        }, 
        {
            "attrs": {
                "adaptive": false, 
                "ceil_mode": false, 
                "data_format": "AnyLayout", 
                "exclusive": true, 
                "global_pooling": false, 
                "is_test": 1, 
                "ksize": [
                    2, 
                    2
                ], 
                "paddings": [
                    0, 
                    0
                ], 
                "pooling_type": "max", 
                "strides": [
                    2, 
                    2
                ], 
                "use_cudnn": true, 
                "use_mkldnn": false
            }, 
            "inputs": {
                "X": [
                    "conv2d_1.tmp_1-1"
                ]
            }, 
            "outputs": {
                "Out": [
                    "pool2d_1.tmp_0"
                ]
            }, 
            "type": "pool2d"
        }, 
        {
            "attrs": {
                "x_num_col_dims": 1, 
                "y_num_col_dims": 1
            }, 
            "inputs": {
                "X": [
                    "pool2d_1.tmp_0"
                ], 
                "Y": [
                    "fc_0.w_0"
                ]
            }, 
            "outputs": {
                "Out": [
                    "fc_0.tmp_0"
                ]
            }, 
            "type": "mul"
        }, 
        {
            "attrs": {
                "axis": 1, 
                "use_mkldnn": false, 
                "x_data_format": "", 
                "y_data_format": ""
            }, 
            "inputs": {
                "X": [
                    "fc_0.tmp_0"
                ], 
                "Y": [
                    "fc_0.b_0"
                ]
            }, 
            "outputs": {
                "Out": [
                    "fc_0.tmp_1"
                ]
            }, 
            "type": "elementwise_add"
        }, 
        {
            "attrs": {
                "data_format": "AnyLayout", 
                "is_test": 1, 
                "use_cudnn": false, 
                "use_mkldnn": false
            }, 
            "inputs": {
                "X": [
                    "fc_0.tmp_1"
                ]
            }, 
            "outputs": {
                "Out": [
                    "fc_0.tmp_2"
                ]
            }, 
            "type": "softmax"
        }, 
        {
            "attrs": {
                "bias": 0.0, 
                "bias_after_scale": true, 
                "scale": 1.0
            }, 
            "inputs": {
                "X": [
                    "fc_0.tmp_2"
                ]
            }, 
            "outputs": {
                "Out": [
                    "scale_0.tmp_0"
                ]
            }, 
            "type": "scale"
        }, 
        {
            "attrs": {}, 
            "inputs": {
                "X": [
                    "scale_0.tmp_0"
                ]
            }, 
            "outputs": {
                "Out": [
                    "fetch"
                ]
            }, 
            "type": "fetch"
        }
    ], 
    "vars": [
        {
            "name": "pool2d_1.tmp_0", 
            "shape": [
                50, 
                4, 
                4
            ]
        }, 
        {
            "name": "pixel", 
            "shape": [
                1, 
                28, 
                28
            ]
        }, 
        {
            "name": "fc_0.tmp_2", 
            "shape": [
                10
            ]
        }, 
        {
            "data": [
                0.02130074054002762, 
                0.024814721196889877, 
                -0.011662982404232025, 
                -0.005922125652432442, 
                0.000722958124242723, 
                -0.01467667706310749, 
                -0.010831412859261036, 
                0.004249932244420052, 
                0.00831153430044651, 
                -0.00888874288648367
            ], 
            "name": "fc_0.b_0", 
            "shape": [
                10
            ]
        }, 
        {
            "name": "pool2d_0.tmp_0", 
            "shape": [
                20, 
                12, 
                12
            ]
        }, 
        {
            "data": [
                0.007404380943626165, 
                0.02956477552652359, 
                -0.016742369160056114, 
                0.030866870656609535, 
                -0.0043031261302530766, 
                0.14324623346328735, 
                -0.006071086972951889, 
                -0.0198059044778347, 
                -0.024367159232497215, 
                0.12330880016088486, 
                0.0816674456000328, 
                0.0465095080435276, 
                0.16355758905410767, 
                -0.033328358083963394, 
                -0.044046737253665924, 
                0.0631781816482544, 
                0.12411235272884369, 
                0.03597221523523331, 
                0.22782401740550995, 
                0.01983574777841568, 
                -0.054397132247686386, 
                0.013912233524024487, 
                0.13008037209510803, 
                0.03551802784204483, 
                0.1025848388671875, 
                -0.05028276517987251, 
                -0.11753224581480026, 
                -0.04156159237027168, 
                -0.09373462200164795, 
                0.06580661982297897, 
                -0.03672469034790993, 
                -0.12244199961423874, 
                -0.027435127645730972, 
                -0.0220019593834877, 
                0.02331717126071453, 
                -0.14341209828853607, 
                -0.03194623067975044, 
                -0.09337884932756424, 
                0.0037334503140300512, 
                -0.12661917507648468, 
                -0.01956036314368248, 
                -0.09313605725765228, 
                0.03811782971024513, 
                -0.05644102767109871, 
                0.045981187373399734, 
                0.06618627160787582, 
                0.03469693660736084, 
                -0.08232545107603073, 
                -0.03444495052099228, 
                -0.04468943923711777, 
                -0.024415386840701103, 
                0.01550708431750536, 
                -0.0519358292222023, 
                -0.05129007622599602, 
                -0.06372155249118805, 
                0.0018813597271218896, 
                0.03443707153201103, 
                0.018043244257569313, 
                0.01564839854836464, 
                0.057176098227500916, 
                0.022303486242890358, 
                0.07579219341278076, 
                0.03420897573232651, 
                -0.037313900887966156, 
                0.08311186730861664, 
                -0.05443001165986061, 
                0.06211620941758156, 
                -0.07798384875059128, 
                0.08291275799274445, 
                0.04375584423542023, 
                -0.08357610553503036, 
                -0.027856478467583656, 
                -0.0957920178771019, 
                0.07601065188646317, 
                0.010577929206192493, 
                0.09682156145572662, 
                0.01275991927832365, 
                -0.0663941353559494, 
                0.05944792181253433, 
                0.09250069409608841, 
                0.04260294511914253, 
                0.043491531163454056, 
                0.15992654860019684, 
                -0.08951962739229202, 
                -0.06081102415919304, 
                -0.07143372297286987, 
                -0.009171624667942524, 
                0.043075911700725555, 
                0.08409280329942703, 
                0.11567531526088715, 
                0.05104164779186249, 
                -0.01231115311384201, 
                0.0058602155186235905, 
                -0.0434645339846611, 
                0.06964904814958572, 
                0.019968710839748383, 
                -0.0627477690577507, 
                0.10181653499603271, 
                0.0370948351919651, 
                0.052744749933481216, 
                -0.05917925387620926, 
                0.001071221544407308, 
                0.08961686491966248, 
                -0.10530312359333038, 
                -0.02775697596371174, 
                -0.049218375235795975, 
                0.27879947423934937, 
                0.03987397253513336, 
                0.04878385737538338, 
                0.09694725275039673, 
                -0.010924624279141426, 
                0.06333305686712265, 
                0.04109572246670723, 
                0.18450509011745453, 
                -0.06362789869308472, 
                -0.07759067416191101, 
                -0.07928603142499924, 
                -0.02488383837044239, 
                -0.08204448223114014, 
                -0.02606094256043434, 
                -0.0039906492456793785, 
                0.06398621201515198, 
                -0.04914737865328789, 
                -0.023692602291703224, 
                0.01900392957031727, 
                -0.0333167128264904, 
                0.04241327941417694, 
                0.0032416568137705326, 
                -0.10782044380903244, 
                0.031245552003383636, 
                -0.10624136030673981, 
                0.10227428376674652, 
                0.16964296996593475, 
                0.12873411178588867, 
                0.16674552857875824, 
                -0.04638243466615677, 
                0.025102727115154266, 
                -0.040216367691755295, 
                0.004467691294848919, 
                0.0562051460146904, 
                0.13358493149280548, 
                0.08187872916460037, 
                -0.0073160831816494465, 
                -0.044243261218070984, 
                0.1084195077419281, 
                0.030934197828173637, 
                -0.045522309839725494, 
                -0.010351572185754776, 
                -0.05630635470151901, 
                0.052207861095666885, 
                -0.1589116007089615, 
                -0.03858669474720955, 
                -0.03541235998272896, 
                -0.13553421199321747, 
                -0.001884490018710494, 
                -0.1270696073770523, 
                -0.013705686666071415, 
                0.1813698709011078, 
                0.06720374524593353, 
                0.0963543951511383, 
                -0.019113317131996155, 
                0.0830133780837059, 
                0.08809250593185425, 
                0.02972119301557541, 
                -0.019770706072449684, 
                0.07914428412914276, 
                -0.10752865672111511, 
                -0.07972744852304459, 
                -0.06617310643196106, 
                0.005398567765951157, 
                0.01849481090903282, 
                -0.0931907668709755, 
                -0.07392966747283936, 
                -0.07108000665903091, 
                0.07757806032896042, 
                0.06225166469812393, 
                -0.020065367221832275, 
                0.03238875791430473, 
                -0.0011479150271043181, 
                -0.03681924566626549, 
                0.05418943986296654, 
                0.059604912996292114, 
                -0.03713850677013397, 
                0.027659520506858826, 
                -0.04357660934329033, 
                -0.04676390811800957, 
                0.013634850271046162, 
                -0.028396714478731155, 
                -0.10336603969335556, 
                -0.04796912893652916, 
                -0.161379873752594, 
                -0.0412411130964756, 
                -0.03258536010980606, 
                -0.010920540429651737, 
                -0.05722632631659508, 
                -0.13289451599121094, 
                0.022343888878822327, 
                0.09291614592075348, 
                -0.03868748992681503, 
                0.03326883912086487, 
                -0.013957551680505276, 
                -0.02140682190656662, 
                0.009006648324429989, 
                -0.11324703693389893, 
                -0.03157487511634827, 
                0.008987702429294586, 
                -0.15631191432476044, 
                0.06527842581272125, 
                0.041606221348047256, 
                -0.08157942444086075, 
                -0.049617450684309006, 
                -0.014219793491065502, 
                -0.08389275521039963, 
                -0.07334206998348236, 
                0.03511391580104828, 
                -0.027947044000029564, 
                -0.09912174195051193, 
                -0.03648510202765465, 
                0.0047285715118050575, 
                0.0448395200073719, 
                -0.008619023486971855, 
                -0.05486937612295151, 
                0.08326270431280136, 
                0.00792731624096632, 
                -0.01691066473722458, 
                0.08829982578754425, 
                0.035875558853149414, 
                0.12338291853666306, 
                -0.08401414752006531, 
                -0.02640565112233162, 
                0.11300860345363617, 
                0.13820382952690125, 
                0.13847875595092773, 
                -0.02050083875656128, 
                -0.011541587300598621, 
                0.09261630475521088, 
                -0.04052542895078659, 
                0.008931132964789867, 
                0.08377552777528763, 
                0.05279912054538727, 
                0.17117084562778473, 
                -0.1434514969587326, 
                0.039334289729595184, 
                0.08844032138586044, 
                -0.07540487498044968, 
                0.06047412008047104, 
                -0.028267141431570053, 
                0.0015510593075305223, 
                -0.12004194408655167, 
                0.10324699431657791, 
                0.03756139427423477, 
                0.01894722878932953, 
                0.08054632693529129, 
                -0.04625726863741875, 
                -0.014650641940534115, 
                0.0005395386833697557, 
                -0.10182100534439087, 
                -0.02860436588525772, 
                0.13659095764160156, 
                -0.0426810197532177, 
                -0.1106288731098175, 
                -0.0947369784116745, 
                -0.02692205086350441, 
                -0.05051266774535179, 
                -0.08341718465089798, 
                -0.09475263953208923, 
                -0.03906464949250221, 
                -0.034359004348516464, 
                0.04211348667740822, 
                -0.03281702846288681, 
                0.04949718713760376, 
                0.06286964565515518, 
                0.0036719278432428837, 
                -0.015034890733659267, 
                0.000989300082437694, 
                0.009351367130875587, 
                0.10765830427408218, 
                -0.03872313350439072, 
                -0.021504784002900124, 
                -0.12863917648792267, 
                -0.03181900829076767, 
                0.10142184793949127, 
                0.15287742018699646, 
                0.1794729232788086, 
                0.17824174463748932, 
                0.003441442968323827, 
                -0.024396363645792007, 
                -0.12453098595142365, 
                0.05784590169787407, 
                0.10168918967247009, 
                0.052388932555913925, 
                0.13483543694019318, 
                0.056478723883628845, 
                0.0791163370013237, 
                0.03302140533924103, 
                0.010411393828690052, 
                -0.011035128496587276, 
                -0.01179553847759962, 
                0.013074337504804134, 
                -0.16803120076656342, 
                -0.06142125278711319, 
                0.0032658386044204235, 
                0.057356834411621094, 
                -0.029539814218878746, 
                -0.04638427495956421, 
                -0.04276067763566971, 
                0.030624767765402794, 
                0.13503412902355194, 
                0.045810677111148834, 
                0.12698271870613098, 
                0.10199428349733353, 
                0.10515661537647247, 
                0.06973404437303543, 
                0.03275523707270622, 
                0.09914384037256241, 
                -0.08016528934240341, 
                -0.03072955273091793, 
                -0.08182060718536377, 
                0.017740074545145035, 
                -0.04610125720500946, 
                -0.10371552407741547, 
                0.10064761340618134, 
                0.18067924678325653, 
                0.027899160981178284, 
                -0.0178579930216074, 
                -0.07037965953350067, 
                -0.18850292265415192, 
                0.10316023230552673, 
                0.02206219546496868, 
                0.020257992669939995, 
                0.03471689671278, 
                -0.050598472356796265, 
                0.01830761693418026, 
                0.0068945204839110374, 
                0.06423886120319366, 
                0.020710749551653862, 
                -0.08489871770143509, 
                -0.1385783851146698, 
                -0.04855695739388466, 
                0.0356610007584095, 
                0.03763203322887421, 
                0.054498203098773956, 
                0.009592622518539429, 
                -0.0004348919028416276, 
                0.06076899543404579, 
                0.08663539588451385, 
                0.09686804562807083, 
                0.20122456550598145, 
                -0.07002326101064682, 
                -0.0758257657289505, 
                -0.06510549783706665, 
                0.062466781586408615, 
                0.043977268040180206, 
                -0.00758154084905982, 
                -0.07137005776166916, 
                0.052947092801332474, 
                0.0057109082117676735, 
                0.0749562531709671, 
                0.07610246539115906, 
                -0.0074158925563097, 
                -0.06959451735019684, 
                -0.03298027813434601, 
                0.0076813423074781895, 
                0.06625046581029892, 
                -0.09717032313346863, 
                -0.06492409110069275, 
                0.0017407236155122519, 
                -0.06804537773132324, 
                -0.10700616240501404, 
                -0.049775734543800354, 
                0.05002949759364128, 
                0.07316827028989792, 
                0.03882802650332451, 
                0.06757599860429764, 
                -0.14831379055976868, 
                -0.030409464612603188, 
                -0.027355317026376724, 
                0.03865497186779976, 
                0.043495479971170425, 
                0.05194848030805588, 
                0.09713786095380783, 
                0.07560913264751434, 
                -0.18081983923912048, 
                -0.0778510719537735, 
                -0.14066974818706512, 
                -0.009640714153647423, 
                -0.05555284395813942, 
                -0.07050677388906479, 
                -0.117568239569664, 
                -0.13189567625522614, 
                0.22287893295288086, 
                0.1547798365354538, 
                0.08864586055278778, 
                0.0165333803743124, 
                -0.06188717857003212, 
                0.049236033111810684, 
                0.050650086253881454, 
                0.13413873314857483, 
                -0.00031426743953488767, 
                -0.027851561084389687, 
                -0.006426980718970299, 
                0.11462932825088501, 
                0.084475576877594, 
                -0.09318242967128754, 
                -0.21477854251861572, 
                0.021128427237272263, 
                0.029878219589591026, 
                0.0835307314991951, 
                0.12878239154815674, 
                0.052678901702165604, 
                -0.02277609333395958, 
                -0.031417425721883774, 
                0.00657339533790946, 
                -0.007635714951902628, 
                -0.004023967310786247, 
                0.06634693592786789, 
                -0.03131117671728134, 
                0.06278793513774872, 
                0.013135015964508057, 
                0.09269210696220398, 
                0.05330542102456093, 
                -0.11767186224460602, 
                0.03058558516204357, 
                -0.019203005358576775, 
                -0.06758339703083038, 
                0.019011279568076134, 
                -0.10858862102031708, 
                -0.09460677206516266, 
                -0.1883891373872757, 
                -0.029429256916046143, 
                0.02865474298596382, 
                0.0757821723818779, 
                -0.03899920731782913, 
                0.00264270743355155, 
                0.03063884936273098, 
                0.05130917206406593, 
                0.05030960962176323, 
                -0.03508106991648674, 
                0.08372926712036133, 
                -0.061518747359514236, 
                0.05541705712676048, 
                0.12794707715511322, 
                -0.0026091700419783592, 
                0.0780654177069664, 
                0.0008992558578029275, 
                -0.07469932734966278, 
                -0.0867474377155304, 
                0.07354095578193665, 
                0.043003328144550323, 
                -0.015821775421500206, 
                0.1883843094110489, 
                -0.06427796930074692, 
                -0.04108687862753868, 
                -0.06064653769135475, 
                -0.09728723019361496, 
                -0.0335027314722538, 
                0.07348345220088959, 
                0.08705824613571167, 
                0.12808190286159515, 
                0.0017085412982851267, 
                -0.06110746040940285, 
                -0.005756627302616835, 
                -0.11893118917942047, 
                -0.09525958448648453, 
                0.07410833239555359, 
                0.04562448337674141, 
                -0.04597768560051918, 
                0.11194301396608353, 
                -0.008914738893508911, 
                0.01287829875946045, 
                -0.01685134321451187, 
                -0.02144189178943634, 
                0.026889758184552193, 
                -0.04179364815354347, 
                0.053904224187135696, 
                -0.02590164728462696, 
                -0.07768018543720245, 
                -0.06163622811436653, 
                -0.0472257174551487, 
                0.018487343564629555, 
                -0.011019418016076088, 
                0.014723909087479115, 
                0.11281263083219528, 
                0.02522963099181652, 
                0.0030195272993296385, 
                -0.056448712944984436, 
                -0.01353243738412857, 
                0.04149697348475456, 
                -0.08857510983943939, 
                0.0828166976571083, 
                -0.04857780411839485, 
                0.0991443619132042, 
                0.0016143076354637742, 
                -0.09193959832191467, 
                0.04368459805846214, 
                -0.13115383684635162, 
                0.09779706597328186, 
                -0.034175630658864975, 
                0.03841187059879303, 
                -0.07664292305707932, 
                -0.15559308230876923, 
                -0.08524515479803085, 
                -0.08789631724357605, 
                0.06289099901914597, 
                -0.012655696831643581, 
                -0.009142820723354816, 
                -0.0631350725889206, 
                -0.001018314273096621, 
                -0.09234625101089478, 
                -0.09463760256767273, 
                -0.17752045392990112, 
                -0.08614055067300797, 
                0.05296895280480385, 
                -0.015367276966571808, 
                -0.15083259344100952, 
                0.01794886216521263, 
                0.0009658980416134, 
                -0.07315602153539658, 
                0.054473910480737686, 
                0.05844331532716751, 
                0.030126003548502922, 
                0.04159465432167053, 
                0.011280113831162453, 
                -0.02072487585246563, 
                0.04352637752890587, 
                0.013769797049462795, 
                -0.016476120799779892, 
                -0.014164356514811516, 
                -0.11985034495592117, 
                -0.04074891656637192, 
                0.04809166491031647, 
                -0.06103280559182167, 
                0.04203081876039505, 
                -0.05047464370727539, 
                0.03258637338876724, 
                0.11066340655088425, 
                0.164263054728508, 
                0.1128304973244667, 
                0.1670478731393814, 
                0.05385434255003929, 
                -0.07872597873210907, 
                0.020509056746959686, 
                0.08839128166437149, 
                -0.028421541675925255, 
                -0.12437678128480911, 
                -0.07974298298358917, 
                -0.09014812111854553, 
                0.08581612259149551, 
                -0.09029223024845123, 
                -0.003810619469732046, 
                -0.24764466285705566, 
                -0.08454013615846634, 
                -0.010511700063943863, 
                -0.0035382176283746958, 
                0.042861226946115494, 
                -0.04568853974342346, 
                -0.03597421199083328, 
                -0.27531132102012634, 
                -0.16435058414936066, 
                -0.14168334007263184, 
                0.06699797511100769, 
                0.1350685954093933, 
                0.13731443881988525, 
                -0.0005211169482208788, 
                -0.0015617602039128542, 
                0.09657779335975647, 
                0.19061794877052307, 
                0.2003057599067688, 
                0.07783500850200653, 
                0.05738186091184616, 
                0.04038354381918907, 
                -0.0012749845627695322, 
                -0.026274913921952248, 
                0.15714730322360992, 
                -0.005663744173943996, 
                -0.20443876087665558, 
                -0.16059811413288116, 
                -0.05667443200945854, 
                -0.1552974283695221, 
                -0.14969824254512787, 
                -0.06213029474020004, 
                0.0018600717885419726, 
                -0.012669052928686142, 
                -0.1412150114774704, 
                -0.16315361857414246, 
                0.1065308079123497, 
                0.13760066032409668, 
                0.19540786743164062, 
                0.12016811966896057, 
                0.06475133448839188, 
                0.005612008273601532, 
                0.031899791210889816, 
                0.11147677153348923, 
                0.17906703054904938, 
                0.10089542716741562, 
                0.004655265714973211, 
                0.06437638401985168, 
                0.10346870124340057, 
                0.10772692412137985, 
                0.0742645114660263, 
                0.10616488754749298, 
                -0.07154613733291626, 
                0.07268179953098297, 
                0.09325001388788223, 
                0.09686949849128723, 
                -0.08015903830528259, 
                -0.015917286276817322, 
                0.15762297809123993, 
                0.06854450702667236, 
                0.12938633561134338, 
                0.10276948660612106, 
                -0.03605164587497711, 
                -0.11954871565103531, 
                -0.22829250991344452, 
                -0.0762312188744545, 
                -0.0319904126226902, 
                0.07246951013803482, 
                0.017479171976447105, 
                -0.016542449593544006, 
                0.04223944619297981, 
                0.024964317679405212, 
                -0.0013258673716336489, 
                0.11940252035856247, 
                0.11436048895120621, 
                0.1511651575565338, 
                -0.04798929765820503, 
                -0.039499375969171524, 
                -0.031126637011766434, 
                0.04818474501371384, 
                -0.08636068552732468, 
                -0.03349919244647026, 
                0.043824512511491776, 
                -0.028848810121417046, 
                -0.12668265402317047, 
                -0.18309295177459717, 
                -0.052388645708560944, 
                -0.08260417729616165, 
                0.025359710678458214, 
                0.11311884969472885, 
                -0.11132851988077164, 
                -0.058120667934417725, 
                0.18980970978736877, 
                0.001646652352064848, 
                -0.04148967191576958, 
                0.060000427067279816, 
                0.1917395293712616, 
                0.02453961968421936, 
                0.0020791017450392246, 
                0.002961970865726471, 
                -0.0763101577758789, 
                0.0206796545535326, 
                -0.16873466968536377, 
                -0.08687444031238556, 
                0.11065983772277832, 
                0.09596939384937286, 
                -0.037617579102516174, 
                -0.0828566700220108, 
                -0.1623111069202423, 
                -0.15778321027755737, 
                -0.15338335931301117, 
                -0.11777748167514801, 
                0.059234537184238434, 
                -0.019836975261569023, 
                -0.02686910703778267, 
                -0.12414849549531937, 
                -0.003521556733176112, 
                0.062450919300317764, 
                0.06300035119056702, 
                0.004902542103081942, 
                -0.032229695469141006, 
                -0.008504478260874748, 
                -0.057435162365436554, 
                0.06795161962509155, 
                -0.0327218621969223, 
                0.0156023520976305, 
                0.08607161790132523, 
                0.19103778898715973, 
                0.1089513897895813, 
                -0.09471090883016586, 
                -0.04642939567565918, 
                0.006779085844755173, 
                0.03423953428864479, 
                -0.05782068148255348, 
                0.08981454372406006, 
                0.12814457714557648, 
                -0.008154396899044514, 
                0.018051983788609505, 
                -0.03523462265729904, 
                -0.0077557736076414585, 
                -0.10041642934083939, 
                -0.04842308908700943, 
                -0.05639759078621864, 
                0.00816767755895853, 
                -0.09458053112030029, 
                -0.10732676088809967, 
                -0.07874725759029388, 
                0.002873707329854369, 
                0.05347447097301483, 
                -0.11601605266332626, 
                -0.06668800860643387, 
                -0.18522246181964874, 
                0.02400212734937668, 
                0.017259631305933, 
                0.0743478313088417, 
                0.02430923469364643, 
                -0.15222610533237457, 
                -0.10821816325187683, 
                -0.007197138853371143, 
                -0.10161536931991577, 
                -0.1992558240890503, 
                -0.13516072928905487, 
                -0.0549360066652298, 
                -0.04710385203361511, 
                -0.12995773553848267, 
                -0.07120443880558014, 
                -0.08594810217618942, 
                -0.011622454971075058, 
                -0.06952545046806335, 
                -0.1545763611793518, 
                -0.11410423368215561, 
                -0.053157079964876175, 
                -0.11776471138000488, 
                -0.05981866642832756, 
                3.962175105698407e-05, 
                -0.13088519871234894, 
                -0.034045588225126266, 
                -0.04276860132813454, 
                0.012880883179605007, 
                -0.2220037281513214, 
                0.028559299185872078, 
                -0.28956714272499084, 
                -0.12400028854608536, 
                -0.13473853468894958, 
                -0.19290375709533691, 
                -0.0450417697429657, 
                0.03460438922047615, 
                -0.07155764847993851, 
                -0.01627342961728573, 
                -0.2584235966205597, 
                -0.2713210880756378, 
                -0.08294637501239777, 
                -0.09221921861171722, 
                0.021560441702604294, 
                -0.10590919107198715, 
                -0.09117158502340317, 
                -0.04488498345017433, 
                -0.005079186055809259, 
                -0.014872163534164429, 
                -0.016497813165187836, 
                0.05748896300792694, 
                -0.009404321201145649, 
                -0.09167566895484924, 
                -0.1552666872739792, 
                -0.11037487536668777, 
                0.11092663556337357, 
                0.013263239525258541, 
                0.040463365614414215, 
                0.17809049785137177, 
                -0.009828012436628342, 
                0.003716466948390007, 
                0.08808411657810211, 
                0.09277071058750153, 
                0.06698398292064667, 
                0.1955992430448532, 
                0.1732972264289856, 
                -0.05277499929070473, 
                0.10218234360218048, 
                0.09284117817878723, 
                0.03020777553319931, 
                0.016360091045498848, 
                -0.02961113676428795, 
                -0.10370004922151566, 
                -0.17200158536434174, 
                -0.03338398411870003, 
                -0.048932258039712906, 
                0.12087413668632507, 
                0.09254886209964752, 
                -0.1021675392985344, 
                0.045728929340839386, 
                0.03771122917532921, 
                0.030384022742509842, 
                -0.13802653551101685, 
                0.1399860680103302, 
                -0.017001375555992126, 
                0.030832039192318916, 
                0.12393756955862045, 
                0.07238685339689255, 
                0.034226398915052414, 
                -0.0469154492020607, 
                -0.10155114531517029, 
                -0.05001300945878029, 
                0.05482744798064232, 
                0.032021213322877884, 
                0.0895705372095108, 
                0.11149900406599045, 
                0.019641853868961334, 
                -0.0653451606631279, 
                0.03331654518842697, 
                -0.03827232867479324, 
                0.0014388568233698606, 
                -0.026987997815012932, 
                -0.08166350424289703, 
                -0.04028766229748726, 
                0.032582394778728485, 
                -0.022592805325984955, 
                -0.3007001280784607, 
                -0.17215250432491302, 
                0.030317429453134537, 
                -0.09396442770957947, 
                -0.08744494616985321, 
                -0.06277772784233093, 
                0.033329471945762634, 
                -0.003988746553659439, 
                0.005843377206474543, 
                0.010270788334310055, 
                -0.14824366569519043, 
                0.03297170251607895, 
                0.10500499606132507, 
                0.045322638005018234, 
                -0.002665890147909522, 
                -0.016182025894522667, 
                0.005343510769307613, 
                -0.03472791984677315, 
                0.04016915336251259, 
                0.14437995851039886, 
                -0.021290035918354988, 
                -0.04892612248659134, 
                -0.09182611852884293, 
                -0.04744572564959526, 
                -0.02407240681350231, 
                0.0023361705243587494, 
                0.03226790577173233, 
                0.11447399854660034, 
                0.14856849610805511, 
                -0.04025846719741821, 
                -0.02838558703660965, 
                -0.1956922858953476, 
                -0.02947166934609413, 
                0.163068026304245, 
                0.1438528448343277, 
                0.08793698996305466, 
                0.0498979277908802, 
                0.08884276449680328, 
                -0.10744304209947586, 
                -0.013844144530594349, 
                -0.013713759370148182, 
                0.05486563965678215, 
                0.061768725514411926, 
                0.08070220798254013, 
                -0.10520946234464645, 
                0.09797351062297821, 
                0.011328754015266895, 
                -0.023149928078055382, 
                0.04699067026376724, 
                0.05976707488298416, 
                0.0508689284324646, 
                0.08490873128175735, 
                0.07095521688461304, 
                0.15766941010951996, 
                0.02210383117198944, 
                -0.02546958066523075, 
                -0.06924532353878021, 
                -0.09944383054971695, 
                -0.12353068590164185, 
                -0.14807601273059845, 
                -0.05522287264466286, 
                -0.03922203555703163, 
                -0.012517099268734455, 
                0.0760463997721672, 
                0.06242501363158226, 
                0.10709148645401001, 
                -0.04137962684035301, 
                0.005596382077783346, 
                -0.10233298689126968, 
                0.14994601905345917, 
                -0.03547799959778786, 
                -0.11910127848386765, 
                -0.15250474214553833, 
                -0.08002924919128418, 
                -0.08607549220323563, 
                -0.07892097532749176, 
                0.06892074644565582, 
                0.02267749421298504, 
                -0.1188148632645607, 
                -0.14298942685127258, 
                0.01999576762318611, 
                -0.20717915892601013, 
                -0.03934476152062416, 
                0.014256427995860577, 
                0.03971462696790695, 
                0.007936754263937473, 
                0.01954573020339012, 
                0.0165863074362278, 
                0.07988631725311279, 
                0.07089825719594955, 
                -0.05671968311071396, 
                0.051535140722990036, 
                0.03568609058856964, 
                -0.05969943851232529, 
                0.14020149409770966, 
                0.030489737167954445, 
                0.10379329323768616, 
                0.08508038520812988, 
                -0.054429687559604645, 
                0.07071223855018616, 
                -0.08917242288589478, 
                -0.04186980426311493, 
                0.09720629453659058, 
                0.05028824880719185, 
                0.03728741034865379, 
                -0.045209724456071854, 
                -0.03807776793837547, 
                -0.08301898837089539, 
                -0.1407315582036972, 
                -0.08809086680412292, 
                0.05316906049847603, 
                0.017290489748120308, 
                0.06532870978116989, 
                0.02397415041923523, 
                -0.028690867125988007, 
                -0.000554656726308167, 
                0.01194562017917633, 
                0.11766184121370316, 
                0.06095103174448013, 
                0.16370642185211182, 
                -0.12023808062076569, 
                -0.11879310011863708, 
                -0.05343956872820854, 
                0.03456782177090645, 
                0.1708848774433136, 
                -0.1224280446767807, 
                -0.29449644684791565, 
                -0.09296368062496185, 
                -0.10406360030174255, 
                -0.07238426804542542, 
                0.02592514455318451, 
                -0.10868586599826813, 
                -0.04776506870985031, 
                0.02802053838968277, 
                0.019833214581012726, 
                0.12458054721355438, 
                0.08467436581850052, 
                -0.03399734944105148, 
                -0.00212714821100235, 
                -0.03824395686388016, 
                0.017787590622901917, 
                -0.03672095760703087, 
                0.038251519203186035, 
                0.013224590569734573, 
                0.14359165728092194, 
                0.08272052556276321, 
                0.0317421592772007, 
                -0.029401252046227455, 
                -0.002815750427544117, 
                -0.002598597900941968, 
                0.0666862204670906, 
                0.1811630129814148, 
                0.029320307075977325, 
                0.0703222006559372, 
                0.00136817607562989, 
                -0.0642339289188385, 
                -0.20208017528057098, 
                -0.10627249628305435, 
                0.08618345856666565, 
                0.05755108594894409, 
                0.12803134322166443, 
                -0.012076104059815407, 
                -0.06363330781459808, 
                0.012926784344017506, 
                -0.020744379609823227, 
                0.06004154682159424, 
                -0.03593927249312401, 
                0.1081550121307373, 
                0.05253675952553749, 
                0.0998830571770668, 
                -0.10175736993551254, 
                -0.027072397992014885, 
                -0.02501370571553707, 
                -0.10467790067195892, 
                0.0027590275276452303, 
                -0.069091796875, 
                0.024197056889533997, 
                -0.052602071315050125, 
                -0.08384966105222702, 
                -0.052743881940841675, 
                -0.019983267411589622, 
                -0.07958101481199265, 
                0.11853811144828796, 
                0.11654201149940491, 
                -0.06194525957107544, 
                -0.030452558770775795, 
                0.14845317602157593, 
                0.021413149312138557, 
                0.056208305060863495, 
                0.0873199850320816, 
                0.135416179895401, 
                0.14028280973434448, 
                -0.008917460218071938, 
                -0.04951057583093643, 
                0.0285948533564806, 
                0.005096131935715675, 
                -0.05900636687874794, 
                -0.04018710181117058, 
                -0.09463636577129364, 
                -0.13558873534202576, 
                -0.10040239989757538, 
                -0.18387958407402039, 
                -0.08763713389635086, 
                -0.042372241616249084, 
                -0.17482423782348633, 
                -0.13454172015190125, 
                0.035370562225580215, 
                -0.1307351142168045, 
                -0.006646558176726103, 
                -0.0751173347234726, 
                -0.05835564061999321, 
                -0.0462200902402401, 
                0.009237551130354404, 
                -0.15291592478752136, 
                -0.04487396776676178, 
                0.0212988443672657, 
                -0.031608592718839645, 
                0.01433834433555603, 
                0.014076078310608864, 
                -0.02141309529542923, 
                -0.02229343168437481, 
                0.022905372083187103, 
                -0.012451140210032463, 
                0.02947017177939415, 
                -0.049469977617263794, 
                0.11180673539638519, 
                -0.0390293151140213, 
                0.062175776809453964, 
                -0.14342382550239563, 
                -0.019396675750613213, 
                0.05495988950133324, 
                0.04890509322285652, 
                0.10032901167869568, 
                0.03359527140855789, 
                0.14779748022556305, 
                0.08711964637041092, 
                0.065437451004982, 
                0.09535324573516846, 
                0.08864299207925797, 
                0.06933377683162689, 
                -0.07407329976558685, 
                0.15157508850097656, 
                0.0035814784932881594, 
                0.06977177411317825, 
                0.06657160073518753, 
                0.010829249396920204, 
                -0.016825711354613304, 
                -0.10054513067007065, 
                -0.013943887315690517, 
                -0.06232395023107529, 
                -0.03569503501057625, 
                -0.06484546512365341, 
                0.06578778475522995, 
                0.05767920985817909, 
                0.038228072226047516, 
                -0.09966167062520981, 
                -0.04972481727600098, 
                -0.030356071889400482, 
                -0.045701418071985245, 
                -0.03852929547429085, 
                -0.012994532473385334, 
                0.010047557763755322, 
                -0.08337005972862244, 
                -0.04225628077983856, 
                -0.019495146349072456, 
                0.02454575151205063, 
                0.10230104625225067, 
                0.1859699934720993, 
                0.007373634725809097, 
                -0.03322475031018257, 
                -0.17797839641571045, 
                -0.12638382613658905, 
                -0.09556681662797928, 
                -0.001491704722866416, 
                -0.1503443866968155, 
                -0.2321508377790451, 
                -0.05504581332206726, 
                -0.10613633692264557, 
                -0.08827576041221619, 
                -0.07708363234996796, 
                -0.21402965486049652, 
                -0.05815468728542328, 
                -0.1089082732796669, 
                -0.07254618406295776, 
                -0.1419629603624344, 
                -0.08736087381839752, 
                0.04054978862404823, 
                0.01658560521900654, 
                -0.0826311856508255, 
                -0.020931540057063103, 
                -0.010359600186347961, 
                0.003686385229229927, 
                0.1244945302605629, 
                -0.0013492386788129807, 
                0.03111397847533226, 
                0.07766202837228775, 
                0.026099881157279015, 
                0.05471758544445038, 
                -0.1563720852136612, 
                -0.14309877157211304, 
                -0.06855408102273941, 
                -0.09171406924724579, 
                -0.12671326100826263, 
                -0.1705065816640854, 
                0.02390570193529129, 
                -0.07557572424411774, 
                -0.16149316728115082, 
                -0.023024901747703552, 
                -0.07631806284189224, 
                0.07521471381187439, 
                0.0031463676132261753, 
                -0.13895612955093384, 
                0.029731951653957367, 
                -0.0331428125500679, 
                0.07082559913396835, 
                -0.10944995284080505, 
                -0.050616197288036346, 
                0.145008385181427, 
                -0.03545869514346123, 
                -0.06154363974928856, 
                -0.08626057952642441, 
                0.03466940298676491, 
                -0.03782214596867561, 
                -0.13446979224681854, 
                -0.138693168759346, 
                -0.08768543601036072, 
                -0.024411456659436226, 
                -0.11510441452264786, 
                0.06360825896263123, 
                -0.06927850842475891, 
                -0.08570177108049393, 
                -0.18489377200603485, 
                0.04689386114478111, 
                -0.08820494264364243, 
                -0.03836888447403908, 
                0.05138276144862175, 
                -0.03165126219391823, 
                -0.017716489732265472, 
                -0.03092353604733944, 
                -0.12003164738416672, 
                0.03187064081430435, 
                0.020665619522333145, 
                -0.02684997022151947, 
                -0.04071014001965523, 
                -0.1136033907532692, 
                -0.07174914330244064, 
                -0.09879182279109955, 
                -0.08216596394777298, 
                -0.05227590352296829, 
                -0.008000548928976059, 
                -0.07595517486333847, 
                0.014876559376716614, 
                -0.004061286337673664, 
                -0.024359341710805893, 
                0.09102478623390198, 
                -0.07009854167699814, 
                0.016338985413312912, 
                -0.024437500163912773, 
                -0.09212964028120041, 
                -0.10693281888961792, 
                -0.22734206914901733, 
                -0.024522487074136734, 
                -0.06168127432465553, 
                -0.08972136676311493, 
                -0.0199039988219738, 
                -0.01562546193599701, 
                0.12052230536937714, 
                0.017303133383393288, 
                0.037155039608478546, 
                -0.04609023034572601, 
                0.07538772374391556, 
                -0.0024426595773547888, 
                0.0972912386059761, 
                0.1009734719991684, 
                0.051567140966653824, 
                -0.01204653549939394, 
                -0.023316286504268646, 
                -0.07627512514591217, 
                -0.005805958993732929, 
                -0.10802261531352997, 
                0.020779216662049294, 
                -0.06681972742080688, 
                0.10220660269260406, 
                0.009074876084923744, 
                0.0005432113539427519, 
                -0.011962060816586018, 
                -0.08586294949054718, 
                -0.013906753621995449, 
                0.022568872198462486, 
                0.027447234839200974, 
                -0.0012574284337460995, 
                -0.042734887450933456, 
                -0.034829676151275635, 
                -0.08492525666952133, 
                -0.03367162123322487, 
                0.012498161755502224, 
                0.01001632958650589, 
                0.13142871856689453, 
                0.09886068850755692, 
                0.017519094049930573, 
                0.07234116643667221, 
                0.08204702287912369, 
                -0.11210671067237854, 
                0.004200589377433062, 
                0.08013404905796051, 
                -0.023628167808055878, 
                -0.02442510612308979, 
                0.008162330836057663, 
                0.019148148596286774, 
                -0.02575800195336342, 
                0.0990118607878685, 
                0.11050969362258911, 
                0.0821610763669014, 
                0.06590279191732407, 
                -0.08585292100906372, 
                0.11352069675922394, 
                0.012844329699873924, 
                0.002203937852755189, 
                -0.11831643432378769, 
                -0.05625074729323387, 
                -0.10382271558046341, 
                -0.04510647803544998, 
                0.12299112975597382, 
                -0.015783367678523064, 
                0.05308820307254791, 
                -0.14849020540714264, 
                -0.08172193169593811, 
                -0.06501604616641998, 
                -0.005039482843130827, 
                -0.044475093483924866, 
                -0.16189703345298767, 
                -0.16935348510742188, 
                -0.08646665513515472, 
                0.02800924889743328, 
                -0.09066421538591385, 
                -0.04789678379893303, 
                -0.14237485826015472, 
                -0.17412970960140228, 
                -0.044715333729982376, 
                0.02912016212940216, 
                -0.09082023799419403, 
                -0.11433221399784088, 
                -0.12548059225082397, 
                -0.022675897926092148, 
                -0.03289467841386795, 
                -0.09912720322608948, 
                0.030295103788375854, 
                -0.08050946891307831, 
                -0.03874863311648369, 
                0.05972961708903313, 
                -0.08335580676794052, 
                0.07261667400598526, 
                -0.018674010410904884, 
                0.005415096879005432, 
                -0.035570766776800156, 
                -0.005824749357998371, 
                -0.017809037119150162, 
                0.013692970387637615, 
                -0.07437171787023544, 
                0.04336252063512802, 
                0.15072838962078094, 
                0.05051695182919502, 
                0.10553593188524246, 
                0.20745833218097687, 
                0.1427139788866043, 
                0.0035033514723181725, 
                0.08749975264072418, 
                -0.02603989839553833, 
                0.005675625521689653, 
                0.059843480587005615, 
                0.04568256437778473, 
                0.08362425863742828, 
                -0.08533851057291031, 
                -0.19105839729309082, 
                -0.1534375548362732, 
                -0.07776981592178345, 
                -0.06268922239542007, 
                -0.0440901480615139, 
                -0.1255950629711151, 
                -0.04221371188759804, 
                -0.11975682526826859, 
                -0.03745560348033905, 
                -0.052261851727962494, 
                -0.049925245344638824, 
                0.04956239089369774, 
                -0.0895092561841011, 
                -0.019994564354419708, 
                -0.04540438950061798, 
                0.006373280193656683, 
                -0.050513941794633865, 
                -0.13914048671722412, 
                0.06597764790058136, 
                -0.0015309485606849194, 
                -0.005000508390367031, 
                -0.08411798626184464, 
                -0.05000481754541397, 
                0.10680175572633743, 
                0.03717919439077377, 
                -0.08042512089014053, 
                -0.06382013112306595, 
                -0.13259930908679962, 
                0.006164606660604477, 
                -0.0008415513439103961, 
                0.018898263573646545, 
                0.016722422093153, 
                -0.0824846476316452, 
                -0.10201750695705414, 
                0.012675163336098194, 
                0.08456392586231232, 
                -0.10560406744480133, 
                0.03655867278575897, 
                0.09718935191631317, 
                0.11723743379116058, 
                0.04816779866814613, 
                -0.22643420100212097, 
                0.10905556380748749, 
                -0.03177987039089203, 
                0.1228104904294014, 
                0.0059308880008757114, 
                -0.06383322924375534, 
                -0.06709989905357361, 
                0.01007057260721922, 
                0.0037613827735185623, 
                -0.1650843620300293, 
                0.009297236800193787, 
                0.022643020376563072, 
                -0.015338202938437462, 
                -0.08202417939901352, 
                -0.04560934752225876, 
                -0.11898606270551682, 
                0.056574538350105286, 
                0.013520987704396248, 
                0.08302965015172958, 
                0.059347931295633316, 
                -0.06036650761961937, 
                0.031390197575092316, 
                -0.010190960951149464, 
                0.08129652589559555, 
                0.034734971821308136, 
                0.13487671315670013, 
                0.08429938554763794, 
                0.04673302173614502, 
                -0.058451972901821136, 
                0.056488264352083206, 
                0.13508503139019012, 
                0.027755223214626312, 
                0.20957601070404053, 
                0.062070298939943314, 
                0.006414294708520174, 
                -0.023676542565226555, 
                -0.012381781823933125, 
                -0.042076896876096725, 
                -0.046009451150894165, 
                -0.1447167545557022, 
                -0.08832579851150513, 
                -0.21469290554523468, 
                -0.017040111124515533, 
                0.13986115157604218, 
                0.11517547816038132, 
                0.015261747874319553, 
                -0.10793405026197433, 
                -0.06046606972813606, 
                0.13159985840320587, 
                0.016752542927861214, 
                0.02603914588689804, 
                -0.10843951255083084, 
                -0.010771804489195347, 
                -0.019013524055480957, 
                0.03402842953801155, 
                -0.053985390812158585, 
                -0.08321516215801239, 
                0.09732866287231445, 
                -0.022404350340366364, 
                0.01444857008755207, 
                -0.12992554903030396, 
                -0.07216605544090271, 
                -0.025705955922603607, 
                0.04129113256931305, 
                -0.034718889743089676, 
                -0.15978005528450012, 
                -0.06647972017526627, 
                -0.11094971746206284, 
                0.00745509285479784, 
                0.08111140877008438, 
                -0.14731617271900177, 
                0.008718978613615036, 
                -0.03798900172114372, 
                0.07406757771968842, 
                0.1010306179523468, 
                0.027924060821533203, 
                0.06418158859014511, 
                0.06303112953901291, 
                0.09343227744102478, 
                0.12652258574962616, 
                -0.037278350442647934, 
                0.06242787092924118, 
                0.05209791660308838, 
                0.007251883391290903, 
                -0.07839914411306381, 
                0.03385505452752113, 
                -0.034971315413713455, 
                -0.07781558483839035, 
                -0.07250827550888062, 
                -0.0028287058230489492, 
                -0.09930647909641266, 
                -0.08035293221473694, 
                -0.07037373632192612, 
                -0.0029824855737388134, 
                -0.04218205064535141, 
                -0.023782139644026756, 
                0.02108689956367016, 
                0.026787953451275826, 
                -0.08456259220838547, 
                -0.0661361813545227, 
                -0.013689716346561909, 
                0.05324921756982803, 
                0.0021131103858351707, 
                0.03374487906694412, 
                -0.01604214683175087, 
                0.10435445606708527, 
                -0.10642701387405396, 
                0.02579512447118759, 
                0.0033923396840691566, 
                -0.01243225485086441, 
                -0.09562601149082184, 
                -0.11019562184810638, 
                0.006290926598012447, 
                -0.004090098198503256, 
                -0.032870061695575714, 
                -0.06001783907413483, 
                -0.148573637008667, 
                -0.03138623386621475, 
                -0.057514581829309464, 
                0.028153840452432632, 
                -0.09264237433671951, 
                -0.13308919966220856, 
                -0.011011962778866291, 
                -0.029767336323857307, 
                0.007437954656779766, 
                -0.20807449519634247, 
                0.036452777683734894, 
                0.011895706877112389, 
                0.10223893821239471, 
                0.11371457576751709, 
                -0.080902598798275, 
                0.23201946914196014, 
                0.17836381494998932, 
                0.0986521989107132, 
                -0.046898163855075836, 
                0.03783104568719864, 
                -0.023621845990419388, 
                -0.00793445110321045, 
                -0.04745487868785858, 
                -0.14831778407096863, 
                -0.1534874141216278, 
                -0.06698805838823318, 
                0.016821248456835747, 
                0.07693971693515778, 
                -0.042456287890672684, 
                0.044099897146224976, 
                -0.03935142979025841, 
                0.062224552035331726, 
                0.06664226949214935, 
                0.028407633304595947, 
                -0.04738245904445648, 
                -0.026569213718175888, 
                0.03191593661904335, 
                0.05891186743974686, 
                -0.15176790952682495, 
                -0.22438466548919678, 
                -0.12404127418994904, 
                -0.10374698787927628, 
                0.02472965605556965, 
                -0.1461644172668457, 
                -0.02800871804356575, 
                -0.03891553729772568, 
                -0.047970470041036606, 
                0.016018342226743698, 
                0.03171152621507645, 
                0.07158330827951431, 
                -0.024695632979273796, 
                -0.03865235298871994, 
                -0.06125129386782646, 
                -0.025185205042362213, 
                0.040266089141368866, 
                0.07233066111803055, 
                0.020998019725084305, 
                -0.026096496731042862, 
                -0.010475867427885532, 
                -0.07427556067705154, 
                0.08316555619239807, 
                0.06256585568189621, 
                0.0480889193713665, 
                0.10787536203861237, 
                0.08509214967489243, 
                -0.06309465318918228, 
                -0.060985781252384186, 
                0.020978953689336777, 
                -0.01012263260781765, 
                0.032927241176366806, 
                0.04536280781030655, 
                0.07627725601196289, 
                -0.2026369273662567, 
                -0.19012780487537384, 
                -0.03079383447766304, 
                0.06403960287570953, 
                0.14164356887340546, 
                0.05883828178048134, 
                -0.10744074732065201, 
                -0.11888932436704636, 
                0.02567685768008232, 
                -0.034444138407707214, 
                -0.19567637145519257, 
                -0.19986885786056519, 
                0.08323168009519577, 
                0.21276596188545227, 
                0.046275023370981216, 
                -0.08080215752124786, 
                0.00731886550784111, 
                0.04644598066806793, 
                -0.037020422518253326, 
                -0.07336749881505966, 
                -0.05262744799256325, 
                -0.15135185420513153, 
                0.12567506730556488, 
                -0.002830197336152196, 
                -0.029201652854681015, 
                -0.08106060326099396, 
                -0.11586517840623856, 
                0.05636971443891525, 
                0.061258066445589066, 
                -0.07682574540376663, 
                -0.11759670823812485, 
                -0.047250986099243164, 
                -0.014852025546133518, 
                -0.007083430886268616, 
                -0.0827384665608406, 
                0.12626869976520538, 
                0.0526394285261631, 
                0.02689201757311821, 
                0.028083400800824165, 
                -0.05310570448637009, 
                -0.029053209349513054, 
                0.02846713364124298, 
                -0.06553994864225388, 
                0.069376140832901, 
                -0.10317984223365784, 
                0.06722316890954971, 
                -0.04875250533223152, 
                -0.016088472679257393, 
                0.06011015921831131, 
                -0.06845561414957047, 
                0.08064890652894974, 
                -0.0036698454059660435, 
                0.09081616252660751, 
                -0.07207922637462616, 
                -0.00361195532605052, 
                -0.1362471729516983, 
                -0.05874946340918541, 
                -0.06606271117925644, 
                0.011278972029685974, 
                -0.058891721069812775, 
                0.013635187409818172, 
                -0.05587189644575119, 
                0.0029446992557495832, 
                -0.0007488007540814579, 
                -0.11590486764907837, 
                -0.02340712584555149, 
                0.009413888677954674, 
                -0.09916894882917404, 
                -0.06996981799602509, 
                -0.02163689397275448, 
                0.01945166103541851, 
                -0.08691266179084778, 
                0.1230362132191658, 
                0.0158525500446558, 
                -0.0356069952249527, 
                -0.1202562153339386, 
                -0.16717514395713806, 
                0.046623583883047104, 
                -0.0025127213448286057, 
                -0.0339275598526001, 
                0.01437330525368452, 
                -0.021183187142014503, 
                -0.04164464399218559, 
                -0.12449567764997482, 
                -0.07454904168844223, 
                0.06685089319944382, 
                0.03876398131251335, 
                -0.04557375982403755, 
                -0.02179720252752304, 
                0.11018719524145126, 
                0.012870938517153263, 
                -0.01710095815360546, 
                0.018975120037794113, 
                -0.1406995803117752, 
                0.09646216779947281, 
                0.06506868451833725, 
                0.020039832219481468, 
                0.03512052819132805, 
                0.003001617966219783, 
                -0.050128497183322906, 
                0.023468950763344765, 
                0.10045731067657471, 
                0.19266538321971893, 
                -0.06240467727184296, 
                0.045738257467746735, 
                -0.02471003122627735, 
                0.04684730991721153, 
                0.044653572142124176, 
                -0.1110895499587059, 
                -0.03517933562397957, 
                0.1124567911028862, 
                0.04030782729387283, 
                -0.04478815943002701, 
                -0.14635643362998962, 
                0.06437428295612335, 
                -0.0022789814975112677, 
                0.0663810595870018, 
                -0.07371257245540619, 
                0.030684376135468483, 
                -0.12896980345249176, 
                -0.13646289706230164, 
                -0.054986901581287384, 
                -0.07288071513175964, 
                0.14450398087501526, 
                -0.13002784550189972, 
                0.015599840320646763, 
                0.0109397042542696, 
                0.02835829183459282, 
                0.01676025800406933, 
                -0.025173213332891464, 
                -0.08443590253591537, 
                -0.14472275972366333, 
                -0.19002999365329742, 
                -0.08259943872690201, 
                -0.018615800887346268, 
                -0.08430366963148117, 
                0.0426819808781147, 
                -0.12180183082818985, 
                0.16512180864810944, 
                0.04858221113681793, 
                0.025908686220645905, 
                0.10612557083368301, 
                0.014529647305607796, 
                -0.0120492959395051, 
                0.06242164969444275, 
                0.2021411508321762, 
                -0.011866235174238682, 
                -0.049684762954711914, 
                -0.02566484548151493, 
                -0.10089526325464249, 
                0.06723187863826752, 
                0.05398208275437355, 
                0.03189653530716896, 
                -0.10788866877555847, 
                -0.104149229824543, 
                0.033033426851034164, 
                -0.006002533715218306, 
                -0.09483548998832703, 
                0.05989712476730347, 
                0.046388767659664154, 
                -0.10914935171604156, 
                -0.08846098184585571, 
                -0.13303595781326294, 
                0.01417421642690897, 
                0.09741117805242538, 
                -0.06496493518352509, 
                -0.09649176150560379, 
                -0.1319122165441513, 
                -0.1468648761510849, 
                -0.11605384945869446, 
                -0.1558292955160141, 
                0.022769447416067123, 
                0.016045821830630302, 
                -0.16669873893260956, 
                0.027173951268196106, 
                -0.0888248011469841, 
                0.049026574939489365, 
                0.09442979097366333, 
                0.033570364117622375, 
                -0.06529845297336578, 
                -0.008945001289248466, 
                -0.014724932610988617, 
                0.14638647437095642, 
                0.017002318054437637, 
                -0.060654159635305405, 
                0.13505050539970398, 
                -0.030650168657302856, 
                0.09794128686189651, 
                -0.14907313883304596, 
                -0.1588808000087738, 
                0.044211942702531815, 
                -0.06910330057144165, 
                0.005859081633388996, 
                0.12400653213262558, 
                0.05450470373034477, 
                -0.011790942400693893, 
                -0.12471398711204529, 
                0.018656639382243156, 
                -0.08033818751573563, 
                -0.044349540024995804, 
                -0.029199399054050446, 
                -0.19166302680969238, 
                -0.18881183862686157, 
                0.21182750165462494, 
                0.10481159389019012, 
                -0.13044384121894836, 
                -0.20512992143630981, 
                0.004509442951530218, 
                0.06338438391685486, 
                -0.038159437477588654, 
                -0.16411682963371277, 
                -0.18299996852874756, 
                -0.16665194928646088, 
                0.1551850289106369, 
                -0.11181991547346115, 
                -0.047761909663677216, 
                -0.11984583735466003, 
                -0.14453913271427155, 
                -0.07099686563014984, 
                -0.09636776894330978, 
                0.08890336751937866, 
                0.0719684511423111, 
                0.09938843548297882, 
                -0.041308946907520294, 
                -0.08156850934028625, 
                0.12179266661405563, 
                -0.03376826271414757, 
                -0.0272302757948637, 
                0.10576444119215012, 
                -0.10053600370883942, 
                0.18061277270317078, 
                0.09575169533491135, 
                -0.1041015014052391, 
                -0.06254678964614868, 
                -0.0008925802540034056, 
                -0.019432324916124344, 
                -0.17139649391174316, 
                -0.10878538340330124, 
                -0.026163281872868538, 
                -0.03956964612007141, 
                0.23881541192531586, 
                -0.12001879513263702, 
                -0.06915856897830963, 
                -0.1210956871509552, 
                -0.11465675383806229, 
                -0.04986572265625, 
                -0.011293160729110241, 
                0.08232187479734421, 
                -0.036305155605077744, 
                -0.07118996977806091, 
                -0.13784615695476532, 
                -0.06272514164447784, 
                0.05431615933775902, 
                -0.0042652529664337635, 
                -0.04239235073328018, 
                -0.033871836960315704, 
                0.15605615079402924, 
                0.005982719827443361, 
                -0.16783881187438965, 
                0.005255482625216246, 
                0.10634850710630417, 
                0.020968442782759666, 
                0.12222263962030411, 
                0.006769491825252771, 
                -0.027592703700065613, 
                -0.0834587961435318, 
                0.014146790839731693, 
                -0.12103236466646194, 
                0.05414925515651703, 
                -0.05076925829052925, 
                -0.004687807057052851, 
                -0.08506735414266586, 
                0.0727749913930893, 
                -0.007687005680054426, 
                -0.013926858082413673, 
                -0.024148808792233467, 
                0.16791078448295593, 
                0.1765516698360443, 
                -0.037356194108724594, 
                -0.07692885398864746, 
                0.06426236778497696, 
                -0.09598875790834427, 
                -0.0654984563589096, 
                -0.14888998866081238, 
                -0.0840710774064064, 
                0.14786869287490845, 
                0.08885980397462845, 
                0.0064294408075511456, 
                -0.2220136821269989, 
                0.1906055361032486, 
                0.14016959071159363, 
                0.00028006662614643574, 
                -0.13471680879592896, 
                -0.07856430113315582, 
                -0.006957440637052059, 
                0.06681657582521439, 
                -0.05676906183362007, 
                -0.022042570635676384, 
                -0.07107377052307129, 
                0.2274838089942932, 
                -0.05871373787522316, 
                -0.11377780884504318, 
                -0.12466446310281754, 
                0.04128311946988106, 
                0.12078903615474701, 
                0.037729427218437195, 
                -0.03913751617074013, 
                -0.027446286752820015, 
                0.029257047921419144, 
                0.10722946375608444, 
                -0.01564997062087059, 
                -0.17636264860630035, 
                0.11235181242227554, 
                0.08007495850324631, 
                0.14486601948738098, 
                -0.006290106102824211, 
                0.03963277488946915, 
                0.07950079441070557, 
                0.050738513469696045, 
                -0.02694965898990631, 
                -0.05049821361899376, 
                -0.03202642500400543, 
                0.010150286369025707, 
                0.005833642557263374, 
                -0.19046559929847717, 
                -0.004214112181216478, 
                0.03057267516851425, 
                -0.041748952120542526, 
                -0.063287653028965, 
                -0.11215826869010925, 
                -0.02294512279331684, 
                -0.03370019793510437, 
                -0.008744043298065662, 
                0.0403871089220047, 
                0.05241196230053902, 
                -0.03177965432405472, 
                -0.0005878556985408068, 
                -0.04361072555184364, 
                -0.023016786202788353, 
                0.02925126999616623, 
                -0.020511571317911148, 
                -0.027277275919914246, 
                -0.06119132041931152, 
                -0.07512126863002777, 
                -0.0054818931967020035, 
                0.01912997104227543, 
                0.06916563957929611, 
                0.004512629937380552, 
                -0.004511076491326094, 
                0.09822951257228851, 
                0.05200555920600891, 
                0.050980452448129654, 
                0.06157368794083595, 
                0.09968657046556473, 
                0.04954216629266739, 
                0.026035035029053688, 
                -0.00993951503187418, 
                0.058555010706186295, 
                -0.1315489560365677, 
                0.05505489185452461, 
                -0.11408249288797379, 
                -0.028357364237308502, 
                -0.052365634590387344, 
                -0.02010476216673851, 
                0.09914959967136383, 
                0.09821267426013947, 
                -0.04303740710020065, 
                -0.04509662091732025, 
                -0.16469481587409973, 
                0.03390898182988167, 
                0.10641098767518997, 
                -0.19675861299037933, 
                0.0128874396905303, 
                -0.03974393010139465, 
                0.16451825201511383, 
                0.12443090230226517, 
                -0.07310254871845245, 
                -0.16232965886592865, 
                -0.07506657391786575, 
                0.07344608753919601, 
                0.08059711009263992, 
                0.043613966554403305, 
                -0.003949510864913464, 
                -0.004881827626377344, 
                0.062397550791502, 
                0.13289913535118103, 
                -0.07763807475566864, 
                0.02559061162173748, 
                -0.10015501081943512, 
                -0.005494165234267712, 
                -0.08962716162204742, 
                -0.08769462257623672, 
                -0.059464577585458755, 
                -0.19889670610427856, 
                -0.16274386644363403, 
                -0.012894809246063232, 
                0.0665225237607956, 
                0.03090088628232479, 
                -0.011383983306586742, 
                -0.00603103544563055, 
                -0.10247493535280228, 
                0.15806126594543457, 
                0.05027669295668602, 
                -0.08640620112419128, 
                -0.07466315478086472, 
                -0.013861947692930698, 
                0.04254389926791191, 
                0.0520419143140316, 
                -0.19044442474842072, 
                -0.07128501683473587, 
                -0.01925436221063137, 
                -0.13541150093078613, 
                0.07893387228250504, 
                -0.07406752556562424, 
                0.06306113302707672, 
                -0.014171645045280457, 
                0.01821952313184738, 
                -0.02381017804145813, 
                -0.00984909012913704, 
                0.028971850872039795, 
                -0.021483466029167175, 
                0.02916802652180195, 
                -0.07737281173467636, 
                -0.006542964838445187, 
                0.03455839678645134, 
                -0.021563490852713585, 
                0.10847680270671844, 
                -0.004803570453077555, 
                -0.1022876501083374, 
                -0.14891737699508667, 
                0.14452406764030457, 
                -0.05245647951960564, 
                -0.07700963318347931, 
                -0.10200200229883194, 
                -0.04822757840156555, 
                0.09015359729528427, 
                0.0697016492486, 
                0.058073271065950394, 
                0.01908058300614357, 
                -0.052381232380867004, 
                0.04910390079021454, 
                -0.08232318609952927, 
                -0.037543557584285736, 
                -0.05083230137825012, 
                -0.07378040999174118, 
                -0.011663022451102734, 
                0.005062637850642204, 
                0.0323779433965683, 
                0.004868138115853071, 
                -0.040178317576646805, 
                0.05367589741945267, 
                0.007522622123360634, 
                0.09045425057411194, 
                -0.0554598867893219, 
                -0.07275347411632538, 
                -0.06291136890649796, 
                -0.026380812749266624, 
                0.08306707441806793, 
                -0.10070295631885529, 
                -0.10696108639240265, 
                -0.09419085085391998, 
                -0.06313914060592651, 
                -0.10742037743330002, 
                -0.06568818539381027, 
                0.056192900985479355, 
                0.18140234053134918, 
                -0.04672966152429581, 
                0.04885631799697876, 
                0.015163857489824295, 
                -0.08252864331007004, 
                -0.08083661645650864, 
                -0.009890354238450527, 
                0.08259925991296768, 
                -0.04609199985861778, 
                -0.09972880780696869, 
                0.05723055452108383, 
                0.007941530086100101, 
                -0.03492126613855362, 
                0.05791934207081795, 
                0.1167643666267395, 
                -0.003240203717723489, 
                -0.025100102648139, 
                -0.0277270320802927, 
                0.07222301512956619, 
                0.12322837114334106, 
                -0.11916334182024002, 
                0.0553705170750618, 
                0.006796049885451794, 
                0.13245828449726105, 
                -0.10793909430503845, 
                0.05436074733734131, 
                0.056420959532260895, 
                -0.11923040449619293, 
                -0.017245164141058922, 
                0.03171553462743759, 
                0.04874053969979286, 
                -0.05135851725935936, 
                -0.20906290411949158, 
                -0.026332087814807892, 
                -0.13796871900558472, 
                0.01051652617752552, 
                0.048699747771024704, 
                0.06938225030899048, 
                -0.016051072627305984, 
                0.06989408284425735, 
                -0.09921165555715561, 
                -0.047369521111249924, 
                -0.07959816604852676, 
                -0.091254822909832, 
                -0.06687550991773605, 
                -0.07546832412481308, 
                -0.16777007281780243, 
                -0.04967545345425606, 
                -0.10432881861925125, 
                -0.017835084348917007, 
                0.06430592387914658, 
                -0.0831061527132988, 
                -0.06274302303791046, 
                0.006839404813945293, 
                0.03304643929004669, 
                -0.018380897119641304, 
                0.19245180487632751, 
                -0.005103139206767082, 
                -0.08381666988134384, 
                0.020643146708607674, 
                -0.0761469304561615, 
                0.05451088026165962, 
                0.0551254078745842, 
                -0.027969487011432648, 
                -0.015998417511582375, 
                0.040191929787397385, 
                -0.18182839453220367, 
                -0.05183376744389534, 
                -0.012194286100566387, 
                -0.07093971222639084, 
                0.12021029740571976, 
                -0.030149264261126518, 
                -0.09565027803182602, 
                0.003423921065405011, 
                -0.04466407373547554, 
                -0.0009000153513625264, 
                -0.002268297830596566, 
                0.03706369176506996, 
                -0.00867725070565939, 
                -0.052870504558086395, 
                0.022458570078015327, 
                0.06521323323249817, 
                0.10811410844326019, 
                -0.025260180234909058, 
                -0.02108769677579403, 
                0.10004713386297226, 
                0.1026727631688118, 
                0.13595440983772278, 
                0.08609850704669952, 
                -0.07148326933383942, 
                -0.06482343375682831, 
                -0.11937400698661804, 
                -0.12354539334774017, 
                -0.16322121024131775, 
                -0.027450934052467346, 
                -0.034878700971603394, 
                -0.04027026146650314, 
                -0.02427988313138485, 
                0.0967181846499443, 
                0.0668916180729866, 
                0.1129029169678688, 
                0.05831135809421539, 
                -0.047402191907167435, 
                0.004696432966738939, 
                0.10821141302585602, 
                0.07377825677394867, 
                0.08193083107471466, 
                0.001250237226486206, 
                -0.19607308506965637, 
                0.03255897015333176, 
                0.1520330309867859, 
                -0.023855343461036682, 
                -0.007169635500758886, 
                0.08470986038446426, 
                -0.09550981968641281, 
                -0.1530185490846634, 
                -0.24507184326648712, 
                -0.008065558038651943, 
                -0.07870493829250336, 
                -0.14059805870056152, 
                0.04012661799788475, 
                0.11569660902023315, 
                -0.06783561408519745, 
                -0.010255294851958752, 
                0.08044032752513885, 
                0.06720410287380219, 
                0.06718095391988754, 
                -0.18678462505340576, 
                -0.0479862205684185, 
                0.0013303783489391208, 
                -0.00972919911146164, 
                0.07261975109577179, 
                0.11313752830028534, 
                -0.07892807573080063, 
                0.011506548151373863, 
                0.14149539172649384, 
                0.14516176283359528, 
                0.16274407505989075, 
                -0.06349176168441772, 
                0.036446087062358856, 
                0.11950504034757614, 
                0.11677072942256927, 
                0.002503344789147377, 
                0.16158705949783325, 
                0.09751374274492264, 
                -0.02756916545331478, 
                -0.1903708130121231, 
                0.05730051174759865, 
                -0.06919359415769577, 
                -0.007169587537646294, 
                0.04625137895345688, 
                0.06728959083557129, 
                0.036686427891254425, 
                0.007771393284201622, 
                0.009358172304928303, 
                -0.1351269632577896, 
                -0.07266141474246979, 
                0.03420796990394592, 
                -0.1347707211971283, 
                -0.007061232812702656, 
                0.04339464008808136, 
                0.04487808421254158, 
                0.10216261446475983, 
                -0.1581103503704071, 
                -0.10662292689085007, 
                0.10073751956224442, 
                -0.0059820604510605335, 
                0.0463690347969532, 
                -0.10661736875772476, 
                -0.21759310364723206, 
                -0.10619641095399857, 
                -0.020685948431491852, 
                0.13873592019081116, 
                -0.13227112591266632, 
                -0.07561947405338287, 
                0.05339185893535614, 
                0.03283088281750679, 
                0.10106498003005981, 
                0.048551660031080246, 
                -0.013122241012752056, 
                -0.1752026379108429, 
                0.014529123902320862, 
                -0.058151569217443466, 
                -0.027722898870706558, 
                -0.011273466981947422, 
                -0.02152908779680729, 
                -0.0924706682562828, 
                -0.024911552667617798, 
                0.04046735540032387, 
                -0.015406442806124687, 
                0.060364458709955215, 
                -0.023973863571882248, 
                -0.046354327350854874, 
                -0.19514794647693634, 
                0.027823107317090034, 
                -0.03752729296684265, 
                0.06584687530994415, 
                0.043975673615932465, 
                0.03650624305009842, 
                0.12979362905025482, 
                0.1056218296289444, 
                0.11371234059333801, 
                0.06634463369846344, 
                -0.12551721930503845, 
                0.043737657368183136, 
                -0.05248480290174484, 
                0.0004206590820103884, 
                -0.020663965493440628, 
                -0.07515358924865723, 
                -0.044985465705394745, 
                -0.0294950008392334, 
                0.08139695227146149, 
                0.06284348666667938, 
                -0.03492925316095352, 
                -0.02594757080078125, 
                0.011462061665952206, 
                -0.02329188957810402, 
                0.04339394345879555, 
                -0.05244477465748787, 
                -0.06997352093458176, 
                -0.07502628117799759, 
                -0.05748304724693298, 
                -0.004100154619663954, 
                0.11468133330345154, 
                0.0978817567229271, 
                0.04458765313029289, 
                -0.028675539419054985, 
                -0.027570204809308052, 
                -0.0038551862817257643, 
                -0.045316796749830246, 
                -0.06145529821515083, 
                0.05032431334257126, 
                0.020131753757596016, 
                0.10029470920562744, 
                0.06739979982376099, 
                -0.018767697736620903, 
                -0.14207832515239716, 
                -0.09279134124517441, 
                0.10986233502626419, 
                -0.030991658568382263, 
                -0.19559574127197266, 
                -0.16740275919437408, 
                -0.04677581414580345, 
                0.01078172866255045, 
                -0.14206655323505402, 
                0.1251935511827469, 
                0.11562107503414154, 
                0.021263929083943367, 
                0.05728689208626747, 
                0.0946497842669487, 
                -0.007064592093229294, 
                0.0417715422809124, 
                -0.01571526750922203, 
                0.005919953808188438, 
                -0.04647284001111984, 
                -0.03861093521118164, 
                -0.11745959520339966, 
                -0.045580893754959106, 
                -0.035117585211992264, 
                0.0022626284044235945, 
                0.012249191291630268, 
                -0.04379148408770561, 
                -0.07691057026386261, 
                -0.11104302853345871, 
                -0.11632361263036728, 
                0.09801945835351944, 
                0.050474613904953, 
                -0.016895800828933716, 
                -0.2267025262117386, 
                0.015768764540553093, 
                -0.06004338711500168, 
                -0.18555356562137604, 
                -0.12096664309501648, 
                -0.009335865266621113, 
                0.09335101395845413, 
                -0.012296336703002453, 
                0.04540802165865898, 
                -0.07358946651220322, 
                0.010637378320097923, 
                0.058420389890670776, 
                0.011713262647390366, 
                0.0038598026148974895, 
                0.09665810316801071, 
                -0.020741401240229607, 
                -0.04968854412436485, 
                -0.10660523921251297, 
                -0.06006171181797981, 
                0.002795607317239046, 
                -0.09930547326803207, 
                -0.07707180827856064, 
                -0.19714845716953278, 
                -0.03362928703427315, 
                0.05228114128112793, 
                0.04738141596317291, 
                -0.11705667525529861, 
                -0.027752770110964775, 
                0.06321980804204941, 
                -0.020290261134505272, 
                0.04496220871806145, 
                -0.0809425562620163, 
                0.035537466406822205, 
                0.020910484716296196, 
                -0.04423462599515915, 
                0.013375239446759224, 
                0.12969611585140228, 
                0.09488575905561447, 
                0.06527319550514221, 
                0.08637462556362152, 
                0.0053670634515583515, 
                0.11900479346513748, 
                0.038842469453811646, 
                0.12915608286857605, 
                0.05646582320332527, 
                0.04223964363336563, 
                0.014531616121530533, 
                0.13130447268486023, 
                0.07669758051633835, 
                -0.07440546154975891, 
                -0.04087219014763832, 
                -0.13791199028491974, 
                -0.1438516080379486, 
                -0.017303945496678352, 
                -0.03647726774215698, 
                -0.10974736511707306, 
                0.008682291954755783, 
                0.01722080260515213, 
                0.07043720036745071, 
                0.06288237124681473, 
                0.04083873704075813, 
                0.07745113968849182, 
                0.03325704485177994, 
                0.08377837389707565, 
                0.09331312030553818, 
                -0.1761120706796646, 
                -0.0040537589229643345, 
                0.028468335047364235, 
                0.06773225963115692, 
                0.013820435851812363, 
                -0.08915761858224869, 
                0.004107147920876741, 
                0.0023276754654943943, 
                -0.04682326316833496, 
                -0.01236665714532137, 
                -0.04749668762087822, 
                -0.14478357136249542, 
